digraph Tree {
node [shape=box, style="rounded", color="black", fontname=helvetica] ;
edge [fontname=helvetica] ;
0 [label="apg <= 0.1\nmse = 32.3\nsamples = 40\nvalue = 80.5"] ;
1 [label="gpg <= 0.6\nmse = 9.7\nsamples = 25\nvalue = 77.1"] ;
0 -> 1 [labeldistance=2.5, labelangle=45, headlabel="True"] ;
2 [label="apg <= 0.1\nmse = 5.6\nsamples = 23\nvalue = 76.5"] ;
1 -> 2 ;
3 [label="apg <= 0.0\nmse = 4.1\nsamples = 21\nvalue = 76.1"] ;
2 -> 3 ;
4 [label="crosspg <= 2.5\nmse = 2.6\nsamples = 9\nvalue = 77.4"] ;
3 -> 4 ;
5 [label="ppg <= 10.1\nmse = 0.9\nsamples = 8\nvalue = 77.8"] ;
4 -> 5 ;
6 [label="mse = 0.0\nsamples = 3\nvalue = 79.0"] ;
5 -> 6 ;
7 [label="crosspg <= 1.4\nmse = 0.1\nsamples = 5\nvalue = 77.1"] ;
5 -> 7 ;
8 [label="mse = 0.0\nsamples = 4\nvalue = 77.0"] ;
7 -> 8 ;
9 [label="mse = 0.0\nsamples = 1\nvalue = 78.0"] ;
7 -> 9 ;
10 [label="mse = 0.0\nsamples = 1\nvalue = 73.0"] ;
4 -> 10 ;
11 [label="gpg <= 0.1\nmse = 3.1\nsamples = 12\nvalue = 75.2"] ;
3 -> 11 ;
12 [label="mse = 0.0\nsamples = 1\nvalue = 70.0"] ;
11 -> 12 ;
13 [label="shot_accuracy <= 0.3\nmse = 1.7\nsamples = 11\nvalue = 75.5"] ;
11 -> 13 ;
14 [label="mse = 0.0\nsamples = 1\nvalue = 78.0"] ;
13 -> 14 ;
15 [label="bcpg <= 0.0\nmse = 0.9\nsamples = 10\nvalue = 75.1"] ;
13 -> 15 ;
16 [label="mse = 0.0\nsamples = 1\nvalue = 78.0"] ;
15 -> 16 ;
17 [label="gpg <= 0.1\nmse = 0.4\nsamples = 9\nvalue = 74.9"] ;
15 -> 17 ;
18 [label="mse = 0.0\nsamples = 1\nvalue = 74.0"] ;
17 -> 18 ;
19 [label="ipg <= 0.1\nmse = 0.1\nsamples = 8\nvalue = 75.2"] ;
17 -> 19 ;
20 [label="mse = 0.0\nsamples = 1\nvalue = 76.0"] ;
19 -> 20 ;
21 [label="gpg <= 0.3\nmse = 0.1\nsamples = 7\nvalue = 75.1"] ;
19 -> 21 ;
22 [label="mse = 0.0\nsamples = 5\nvalue = 75.0"] ;
21 -> 22 ;
23 [label="apg <= 0.1\nmse = 0.2\nsamples = 2\nvalue = 75.5"] ;
21 -> 23 ;
24 [label="mse = 0.0\nsamples = 1\nvalue = 76.0"] ;
23 -> 24 ;
25 [label="mse = 0.0\nsamples = 1\nvalue = 75.0"] ;
23 -> 25 ;
26 [label="crosspg <= 1.7\nmse = 3.0\nsamples = 2\nvalue = 80.0"] ;
2 -> 26 ;
27 [label="mse = 0.0\nsamples = 1\nvalue = 79.0"] ;
26 -> 27 ;
28 [label="mse = 0.0\nsamples = 1\nvalue = 83.0"] ;
26 -> 28 ;
29 [label="gpg <= 0.9\nmse = 18.0\nsamples = 2\nvalue = 83.0"] ;
1 -> 29 ;
30 [label="mse = 0.0\nsamples = 1\nvalue = 89.0"] ;
29 -> 30 ;
31 [label="mse = 0.0\nsamples = 1\nvalue = 80.0"] ;
29 -> 31 ;
32 [label="gpg <= 0.1\nmse = 23.4\nsamples = 15\nvalue = 85.4"] ;
0 -> 32 [labeldistance=2.5, labelangle=-45, headlabel="False"] ;
33 [label="mse = 0.0\nsamples = 1\nvalue = 100.0"] ;
32 -> 33 ;
34 [label="bspg <= 0.5\nmse = 15.5\nsamples = 14\nvalue = 84.8"] ;
32 -> 34 ;
35 [label="tpg <= 0.6\nmse = 4.0\nsamples = 6\nvalue = 81.0"] ;
34 -> 35 ;
36 [label="mse = 0.0\nsamples = 2\nvalue = 77.0"] ;
35 -> 36 ;
37 [label="mse = 0.0\nsamples = 4\nvalue = 82.0"] ;
35 -> 37 ;
38 [label="chances_missed <= 12.8\nmse = 6.8\nsamples = 8\nvalue = 87.4"] ;
34 -> 38 ;
39 [label="opg <= 0.4\nmse = 1.9\nsamples = 6\nvalue = 88.4"] ;
38 -> 39 ;
40 [label="mse = 0.0\nsamples = 1\nvalue = 91.0"] ;
39 -> 40 ;
41 [label="apg <= 0.2\nmse = 0.7\nsamples = 5\nvalue = 87.9"] ;
39 -> 41 ;
42 [label="apg <= 0.1\nmse = 0.2\nsamples = 2\nvalue = 86.5"] ;
41 -> 42 ;
43 [label="mse = 0.0\nsamples = 1\nvalue = 86.0"] ;
42 -> 43 ;
44 [label="mse = 0.0\nsamples = 1\nvalue = 87.0"] ;
42 -> 44 ;
45 [label="opg <= 0.8\nmse = 0.2\nsamples = 3\nvalue = 88.2"] ;
41 -> 45 ;
46 [label="mse = 0.0\nsamples = 2\nvalue = 88.0"] ;
45 -> 46 ;
47 [label="mse = 0.0\nsamples = 1\nvalue = 89.0"] ;
45 -> 47 ;
48 [label="shot_accuracy <= 0.6\nmse = 5.6\nsamples = 2\nvalue = 83.3"] ;
38 -> 48 ;
49 [label="mse = 0.0\nsamples = 1\nvalue = 80.0"] ;
48 -> 49 ;
50 [label="mse = 0.0\nsamples = 1\nvalue = 85.0"] ;
48 -> 50 ;
}